{
  "layers": [
    {
      "neurons": [
        {
          "weights": [
            0.1115238608931627,
            0.5551485518354468,
            -0.33315074802425425,
            -0.2256346888838744,
            -0.203371650939569
          ]
        },
        {
          "weights": [
            0.027627979407945865,
            -0.47543852889773747,
            -0.31175784114128924,
            -0.454392807832638,
            -0.3785436389691645
          ]
        },
        {
          "weights": [
            -0.1412538183940993,
            -0.6540401371997286,
            -0.6870457984139018,
            0.7351121395948323,
            0.5902514313690659
          ]
        },
        {
          "weights": [
            -0.5823598550271871,
            -1.9201045643115615,
            1.6114655234218738,
            0.6063988206409734,
            1.5654314609538917
          ]
        }
      ]
    },
    {
      "neurons": [
        {
          "weights": [
            -0.2863169336797509,
            -0.018536338345442847,
            -2.373179374493988,
            -0.5274377042829573,
            6.1116371774679
          ]
        },
        {
          "weights": [
            -0.18070300147302337,
            -0.5888886673620165,
            -3.6247696380914283,
            2.642099930103298,
            -0.0803239523617574
          ]
        },
        {
          "weights": [
            -0.988517551472426,
            -1.361802480364658,
            -3.629076640153635,
            4.1211579111032375,
            -0.7814272432330093
          ]
        },
        {
          "weights": [
            0.43324832833372107,
            3.911095306021364,
            -0.5304586201582391,
            -2.737829603463971,
            4.845330584138295
          ]
        }
      ]
    },
    {
      "neurons": [
        {
          "weights": [
            3.6496585387139007,
            -3.280307031364319,
            0.6640365559327351,
            0.4143724611778934,
            -4.0803071110010825
          ]
        },
        {
          "weights": [
            -0.20218264472068914,
            1.0818602771396917,
            -2.332598859643851,
            -5.323019521712917,
            3.593659446751957
          ]
        },
        {
          "weights": [
            -3.3989288234120383,
            1.3644517620078738,
            4.522777895835988,
            5.6815031781229095,
            -3.206312996465954
          ]
        },
        {
          "weights": [
            -0.7144463441752785,
            -0.04638075043170995,
            -1.2992475749623162,
            -3.377520721159849,
            2.292961545873904
          ]
        },
        {
          "weights": [
            -1.337204380325129,
            -0.801384663502852,
            -0.4677300014077309,
            -0.5846068556799449,
            -1.2020976065493685
          ]
        },
        {
          "weights": [
            2.3650651652009533,
            -5.954406367571494,
            -0.901527918006869,
            -0.6468485030244892,
            -3.5393082853219284
          ]
        }
      ]
    },
    {
      "neurons": [
        {
          "weights": [
            -2.3231480424947324,
            2.1473495843644907,
            -4.6543462211207025,
            2.6499915510485366,
            -4.101005484384529,
            0.5095308240829876,
            0.9056029296407433
          ]
        },
        {
          "weights": [
            -2.142165013249853,
            2.1358157178113135,
            -5.351775193296015,
            2.4657398520599108,
            -3.15833336659711,
            0.17366740745241338,
            -5.012866210532155
          ]
        },
        {
          "weights": [
            -3.5690208646988477,
            -1.3520363321193465,
            -0.8405414349992459,
            -1.2788495961150665,
            -1.9559638465959126,
            0.5295965958352258,
            -0.8545988746197796
          ]
        },
        {
          "weights": [
            -4.410876516870333,
            -5.265433934265262,
            6.54745843087738,
            -3.5610553569050296,
            -0.8722811221517195,
            -0.6009630708474326,
            -1.9228179173552007
          ]
        },
        {
          "weights": [
            1.8078943010129653,
            1.3262573492434098,
            -1.3452509539899316,
            -7.503618321193216,
            -1.1444539959166944,
            0.6905722786503639,
            5.02661624154946
          ]
        },
        {
          "weights": [
            -3.540609172117524,
            -6.008981903679135,
            -5.3937138143189705,
            3.328960316333937,
            -0.6073430207080464,
            0.07649493839950113,
            -3.0404048857226953
          ]
        }
      ]
    }
  ],
  "activation_func": "Sigmoid"
}