{"layers":[{"neurons":[{"weights":[0.2885867665909953,0.25397586353394785,-0.16962642154575,0.4781999535628494,0.3470058045307811]},{"weights":[-0.7879199182751714,-0.4763459200667278,-0.6457128298559331,1.4170418928908763,-0.2292823210676009]},{"weights":[0.3831045468427672,-0.6925381231855002,-0.9761149297323669,0.3150212009333468,-1.017391216191999]},{"weights":[-0.8365895469519627,-0.7955751912617551,-0.1706536485235132,-0.9609243398474479,-0.822147190953332]}]},{"neurons":[{"weights":[-3.528005589492031,1.1843215557666158,4.6223349581346245,-0.4489183290570324,-0.17490187729446982]},{"weights":[-1.5106247404446562,3.366528621750332,1.023289201053332,0.5816582649259386,-0.0690613022064161]},{"weights":[-0.9590421291602972,2.6934348024117565,-3.9093762723833847,-0.0975585991341421,0.8847760922074218]},{"weights":[1.1101650351397112,-2.730571897921686,-1.0334388158966334,-0.5331031501649064,0.026040203141416893]}]},{"neurons":[{"weights":[-1.1296299150370526,2.277907506401189,3.0993830488889054,1.7479309788860347,-2.61477457629421]},{"weights":[-0.543537163923575,0.9357945198289918,-0.036490226240623626,-0.24274259593652436,-1.0009213110315336]},{"weights":[2.8396083291758503,-5.510852461805593,-1.1328258007355891,3.6348401373866337,1.357710743966706]},{"weights":[-0.6796550492368648,4.187241950993653,0.8268567806837079,-2.179551176154665,-1.5921438834956863]},{"weights":[0.12090233727416279,1.3290985382477478,-1.7648050577408345,-1.825581339194293,1.7746828201158955]},{"weights":[0.857791676489367,-0.6804401895243349,-1.2780156022956464,-2.4119871850133277,1.3564953263574495]}]},{"neurons":[{"weights":[-2.058049163279885,1.126000525116343,0.04703912156614175,-5.597610429720278,1.6673720638726721,-0.23685014731403342,-1.120468414072324]},{"weights":[-1.9252369938169882,0.6680833440257378,0.21375111533049618,-5.267528403044709,1.3471584063029145,0.5216232344010336,-0.24438102155614158]},{"weights":[-1.8938339183538173,-1.793964002472422,-1.218411846528734,-1.536089160874111,-1.038408302653725,-0.14925976443948816,-1.5008333999497707]},{"weights":[0.617753980554118,-4.253775765080421,-1.9849701421740356,3.69846959569854,-3.7903197260945687,1.1658858091924058,1.086643553810248]},{"weights":[-2.8400504336571752,1.942068575505387,-1.2971712019945054,3.42407000453709,-4.4466805220585535,-3.669324460557088,-3.4122645604842763]},{"weights":[-1.4014467323024136,-0.07539722713572582,-0.8660132069644026,-4.270123842909687,1.0833622517033912,0.3357003301347234,-0.3611181422631364]}]}],"activation_func":"Sigmoid"}