{"layers":[{"neurons":[{"weights":[0.9870126482224395,-0.6579641890217328,-0.284517810206479,-0.9707231352629792,0.06483194588699893]},{"weights":[0.7823681048553848,0.6027809037975469,0.6096175294922459,-0.9977932150536222,-0.2597065736753871]},{"weights":[0.16856343836182314,-0.6671470166107156,0.3959828234310994,-0.48403179860301493,-0.5162650865861844]},{"weights":[0.3584285466366382,-0.006539118543192413,-0.2551832018927982,-0.9543401289808356,0.1098211254191919]}]},{"neurons":[{"weights":[-2.0420281126696156,0.30517453529705796,3.6609615245227283,2.859533353789851,-0.8856124713552714]},{"weights":[2.289422653647301,-0.7525127608542184,-4.501721223095083,-0.7514309551281768,-0.4915104403723227]},{"weights":[-1.0191159139510975,0.5860937192273189,-1.0789161463619767,3.873907216816299,0.26859892963346593]},{"weights":[1.1198333381098116,0.21367129290324957,0.5909961138493482,-3.133291256150417,0.053212751489359965]}]},{"neurons":[{"weights":[-1.2118135963731704,0.1578389142378828,0.9512225480585497,3.236253860217937,-2.0710533047497863]},{"weights":[1.5607335512027987,-1.6391798534721573,-0.2384184766457237,-3.1650470078009754,3.3285230078027572]},{"weights":[0.12607559456359727,3.162698004050381,-3.518970790403753,1.0184817409273532,-0.02567035483315384]},{"weights":[0.46831389595460526,-4.315219352139635,4.617273454922665,0.5594557338892164,0.6196993902947601]},{"weights":[0.28946923497523824,3.478117921068676,-3.037596523634653,-0.41151719392915875,0.3422654473094601]},{"weights":[-0.6722308637648127,1.793005766824684,-0.13900889684324766,0.3267881705937979,-0.3807512538569236]}]},{"neurons":[{"weights":[-1.2484399295464461,-0.006047429285607397,-0.583550534983246,-2.2940634474118666,2.8992735973263444,-3.52384178145322,-1.434792939898936]},{"weights":[-1.4706427727901206,0.006663221007690426,0.2335151401710199,-2.9948113184245178,2.0644364266484203,-3.195398135660022,-0.5090082455513264]},{"weights":[-2.755104743911279,-0.2101051035797102,-1.4685525044020509,-0.2170128813929043,-1.3264209551303314,-0.3160749088321318,-2.110132557031201]},{"weights":[-0.43647551081176894,1.667926180640318,-4.2674505573556445,2.6290940490009858,-4.458113521974002,1.0618273827053561,0.9945620602644473]},{"weights":[-2.4588951340891114,-4.281140816243637,3.0642533168256967,1.6789835891939306,-6.0910973965589355,0.4831949384516922,-1.104765769342854]},{"weights":[-1.5798317157349182,0.2365985802374897,-0.5719028818108132,-2.353454900022814,1.5664573478652077,-2.617767720109637,-0.23806867197627926]}]}],"activation_func":"Sigmoid"}